{
  "version": 4,
  "labels": [
    "circle",
    "square",
    "triangle"
  ],
  "labelVectors": {
    "circle": [
      1,
      0,
      0
    ],
    "square": [
      0,
      1,
      0
    ],
    "triangle": [
      0,
      0,
      1
    ]
  },
  "options": {
    "layers": 2,
    "filters": 6,
    "kernel": 3,
    "learningRate": 0.001,
    "inputSize": 28,
    "denseInputs": 294
  },
  "layers": [
    {
      "inChannels": 1,
      "outChannels": 6,
      "kernel": 3,
      "weights": [
        [
          [
            [
              -0.4160564307867357,
              -0.4098288433377411,
              -0.3777972243720492
            ],
            [
              0.27910823027312326,
              0.2884693081518526,
              0.08550120524445955
            ],
            [
              0.27481880146890225,
              0.33122624284556973,
              -0.35686271190198104
            ]
          ]
        ],
        [
          [
            [
              0.953737678032942,
              -0.4933154067278993,
              -0.3358802829597663
            ],
            [
              0.8192386342675697,
              -0.3014367544858147,
              0.07487689242145623
            ],
            [
              0.8221750750023604,
              0.5885127192295704,
              -0.5767060930848397
            ]
          ]
        ],
        [
          [
            [
              -0.003480748050331925,
              -0.27599609718850515,
              0.13214426631730938
            ],
            [
              0.6207693873888624,
              -0.24342893222248504,
              0.06581542513451016
            ],
            [
              0.6231736511541437,
              -0.1390339143759526,
              -0.23168115195597974
            ]
          ]
        ],
        [
          [
            [
              0.4553733321530587,
              -0.3463219603164534,
              0.2596663664045555
            ],
            [
              0.614851892780686,
              -0.3811330114394243,
              -0.42429335863973217
            ],
            [
              0.6821010761350415,
              -0.5430830624327201,
              -0.36808120791682813
            ]
          ]
        ],
        [
          [
            [
              -0.4445773130464245,
              0.04511042450600717,
              -0.2547462508944054
            ],
            [
              -0.0858243331434164,
              -0.21395992855619364,
              -0.022476223714477467
            ],
            [
              -0.17557639453935062,
              -0.040526464109777664,
              0.11331878532373858
            ]
          ]
        ],
        [
          [
            [
              0.028471027168542083,
              0.1940976430865379,
              0.3983690559810455
            ],
            [
              0.7022657542822104,
              0.7201796598768153,
              0.7008384947072219
            ],
            [
              -0.2980485982999255,
              -0.2906269965510562,
              -0.5139150425460803
            ]
          ]
        ]
      ],
      "biases": [
        0.0284267394508408,
        0.28848079534581267,
        0.2218399949626509,
        0.01850473747873227,
        -0.027290220629790984,
        0.057228684257177094
      ]
    },
    {
      "inChannels": 6,
      "outChannels": 6,
      "kernel": 3,
      "weights": [
        [
          [
            [
              -0.12817083114937927,
              0.044525883665958305,
              0.21167417663429786
            ],
            [
              -0.09917978532846197,
              0.21712528960149236,
              0.11773471475439473
            ],
            [
              0.2598734374365564,
              0.1252065569230891,
              -0.09958151811828711
            ]
          ],
          [
            [
              -0.12501226235761795,
              -0.09122631263679942,
              0.4315718991521177
            ],
            [
              -0.006696335525870105,
              -0.024428568391424755,
              0.23859258673728312
            ],
            [
              -0.11820185593752565,
              0.11167947931181649,
              0.1639465116936565
            ]
          ],
          [
            [
              -0.1509247623913525,
              -0.10790319417784873,
              0.21048421610894252
            ],
            [
              0.07690931713344341,
              0.022437411059799083,
              0.3175903251838652
            ],
            [
              0.1882792295851424,
              0.004322571701429598,
              0.20205322376333862
            ]
          ],
          [
            [
              -0.017816532120890658,
              -0.10668819727651381,
              0.2632353137967336
            ],
            [
              0.012551312068400659,
              -0.036107046964134,
              0.36802884053469853
            ],
            [
              -0.1963291857098559,
              -0.018983894576672343,
              -0.044599208398968526
            ]
          ],
          [
            [
              -0.07529279414742175,
              -0.1393169882923743,
              0.011897603477666862
            ],
            [
              -0.08952505932898025,
              0.07778923232238072,
              0.04085493957686298
            ],
            [
              -0.09725495436979885,
              0.04626844229669153,
              0.03608449324653437
            ]
          ],
          [
            [
              0.03393948206928245,
              0.052037883751851935,
              0.06101358912282485
            ],
            [
              0.14315077203505117,
              0.26918042658889163,
              0.22427215540216297
            ],
            [
              -0.004518562028661178,
              0.2684524621522859,
              0.11498591304559007
            ]
          ]
        ],
        [
          [
            [
              0.046596953601359715,
              0.09165181849726795,
              -0.09663227401781697
            ],
            [
              0.07383954916267617,
              -0.050910810029593793,
              -0.13579564996935126
            ],
            [
              0.15157370430447561,
              0.1437332260722892,
              0.08782803648005877
            ]
          ],
          [
            [
              0.4213461723158287,
              0.0002067456038658275,
              -0.012015121448541678
            ],
            [
              0.25967427072153276,
              0.27466424424473235,
              -0.19861556367999111
            ],
            [
              0.24322550820165162,
              0.4554305055969633,
              -0.4081294115643767
            ]
          ],
          [
            [
              0.10883550634531795,
              0.22312095137610005,
              -0.09124151098795519
            ],
            [
              -0.05049030611385037,
              0.2075760531157074,
              -0.25633740512381703
            ],
            [
              -0.22056984592123083,
              0.18162865855405563,
              -0.20670534116204284
            ]
          ],
          [
            [
              0.37680233088514425,
              0.09239481502014754,
              -0.02930966585220728
            ],
            [
              -0.015363456131379582,
              0.026334651107940598,
              0.020861438012223253
            ],
            [
              -0.09526164889100358,
              0.5405532947979775,
              -0.20039426026951362
            ]
          ],
          [
            [
              0.05669174687969128,
              0.1556876402364933,
              -0.0805084408750684
            ],
            [
              0.036686087886084615,
              -0.06957863946369958,
              -0.13569900823965927
            ],
            [
              0.08679915851716333,
              0.11433384555642186,
              -0.16749624315218678
            ]
          ],
          [
            [
              0.2341463084439485,
              0.4873566328653653,
              0.6191310183012693
            ],
            [
              0.020421692446435397,
              -0.09678528060485996,
              -0.2030764790001413
            ],
            [
              -0.15506451033475438,
              -0.30223446001491616,
              -0.36932371868075814
            ]
          ]
        ],
        [
          [
            [
              -0.13633536881495079,
              0.022868404405316563,
              -0.07028708747081476
            ],
            [
              -0.12361609706971147,
              0.09873965094324197,
              -0.13680378564835002
            ],
            [
              0.11043504936069176,
              -0.05843530376993567,
              0.1668610096189524
            ]
          ],
          [
            [
              0.46532736117384926,
              -0.03781094939254987,
              0.08170452420705776
            ],
            [
              0.44098911973190835,
              0.053754593061180966,
              -0.027262180929697007
            ],
            [
              0.40670740014816326,
              0.22919893372208788,
              -0.20787606542321566
            ]
          ],
          [
            [
              0.21019750481056107,
              0.09475432140886363,
              -0.0046137995502270246
            ],
            [
              -0.041093609459900586,
              0.051882993852139105,
              -0.12342210736107855
            ],
            [
              -0.04038465940462619,
              0.23872106646889016,
              0.10544971916491001
            ]
          ],
          [
            [
              0.26571169225021624,
              -0.16361232694851777,
              0.08162551136576056
            ],
            [
              0.06917623434620009,
              -0.034774945042769866,
              -0.12409529862228717
            ],
            [
              -0.15293026018068792,
              0.24860315853890175,
              0.06644188062346419
            ]
          ],
          [
            [
              0.10862511496415737,
              -0.16741510410881988,
              0.14037267935710948
            ],
            [
              -0.03474774932777439,
              0.041495056163088635,
              -0.19109103721422258
            ],
            [
              0.16295216265323698,
              0.05592031603057402,
              -0.06702754444243678
            ]
          ],
          [
            [
              -0.14541669518120076,
              -0.022435644739344136,
              -0.12285009023797587
            ],
            [
              -0.17263909037514422,
              -0.19223192710398287,
              0.11236926272807941
            ],
            [
              0.1915806946397672,
              -0.15476695766541218,
              -0.17501436416799188
            ]
          ]
        ],
        [
          [
            [
              0.06487523211121624,
              -0.14105174335204926,
              -0.022766132887865893
            ],
            [
              0.12750195529027844,
              0.0438130385387427,
              0.22046269392261222
            ],
            [
              0.02665835797672313,
              0.1874098535378348,
              -0.02525776373757521
            ]
          ],
          [
            [
              0.0645477048116848,
              -0.11139564647971757,
              0.12781374067969345
            ],
            [
              -0.12908467719558858,
              -0.2035833313923397,
              0.36204427919032206
            ],
            [
              0.002644911945968145,
              0.2835348391393617,
              0.2340429945412027
            ]
          ],
          [
            [
              -0.019394272880909533,
              -0.13286225485328024,
              0.268374589387787
            ],
            [
              0.03476976901766468,
              -0.12171207935158793,
              0.25847235501658594
            ],
            [
              -0.16607492516733113,
              -0.03058161864326973,
              -0.03466351506829641
            ]
          ],
          [
            [
              0.1496113313605466,
              0.08377169878989,
              0.38255434303003005
            ],
            [
              0.09550151132812912,
              -0.2059984485361534,
              0.22426662785778465
            ],
            [
              0.048343497259094474,
              0.14843262407425561,
              0.19913207834079547
            ]
          ],
          [
            [
              0.1068799032114829,
              -0.14776448221597152,
              -0.12379556981000442
            ],
            [
              -0.03304260367125245,
              -0.17322152547167075,
              0.1810958704650533
            ],
            [
              0.17344462649220332,
              0.10009077905684578,
              -0.09281219591468488
            ]
          ],
          [
            [
              0.025912919549806276,
              0.032855104485645104,
              -0.013312751603589948
            ],
            [
              0.17918230381683478,
              -0.11936343330410348,
              0.12368299234996943
            ],
            [
              -0.23543558083154972,
              0.14437147933559386,
              0.01496953240569076
            ]
          ]
        ],
        [
          [
            [
              -0.13769248907667778,
              0.19266735289869905,
              -0.0024373659418323113
            ],
            [
              0.019407755011149275,
              0.09755343728048219,
              0.0711814003539698
            ],
            [
              0.2368368340979345,
              0.08330546399393535,
              0.03420314330011562
            ]
          ],
          [
            [
              -0.1015128524786606,
              0.2471567652743222,
              0.3782357203696817
            ],
            [
              0.0571847830065006,
              0.0466535496485021,
              0.5024165529764958
            ],
            [
              0.4576746556052848,
              -0.1699800952113198,
              0.15792922449383912
            ]
          ],
          [
            [
              -0.06598423910535223,
              0.060494260605453695,
              0.08342094224203495
            ],
            [
              0.18995045164112256,
              -0.1269361550190364,
              0.09143825299838829
            ],
            [
              0.25878822402514473,
              -0.010792528455330448,
              0.12431141607837269
            ]
          ],
          [
            [
              -0.017640544965809305,
              -0.13094516840711903,
              0.2860602685795065
            ],
            [
              0.14692451809561397,
              0.05491631122048393,
              0.17656536985273347
            ],
            [
              0.0663309844375297,
              -0.08285244806171234,
              -0.24696606596160564
            ]
          ],
          [
            [
              -0.04298180787554484,
              0.11290445512029465,
              -0.17462128151058784
            ],
            [
              0.16593269540639938,
              -0.15818611169200072,
              0.07010656410653493
            ],
            [
              0.14508606470216864,
              -0.04763471274300152,
              0.03823548808598572
            ]
          ],
          [
            [
              -0.2936459084344146,
              0.20262759530879046,
              0.059864817788182596
            ],
            [
              0.2172164969630742,
              -0.14388804846412004,
              0.03794568059605398
            ],
            [
              0.18755352633502928,
              -0.09528924768340542,
              0.3108098405398126
            ]
          ]
        ],
        [
          [
            [
              0.12169313204487789,
              0.1182979553948842,
              0.008592290240268068
            ],
            [
              0.014611120900532303,
              -0.12331192113579154,
              0.17206106235612148
            ],
            [
              -0.08570829788793696,
              -0.1967681896991197,
              -0.09205657055686116
            ]
          ],
          [
            [
              -0.16920918182337719,
              -0.03605084100134952,
              -0.11904344752585677
            ],
            [
              0.11814206734053866,
              0.1562828125003162,
              -0.0011769559683035492
            ],
            [
              -0.08778562385089887,
              -0.20385402333103192,
              0.1486446122309684
            ]
          ],
          [
            [
              -0.11830852908651802,
              0.1995929066248142,
              -0.024098557753762347
            ],
            [
              0.11483437483800714,
              0.18117393974930976,
              0.19273123761092167
            ],
            [
              0.23078159264179798,
              0.14999809955604954,
              -0.16418712845798364
            ]
          ],
          [
            [
              -0.1831014380995403,
              -0.12735016726208326,
              -0.017552563952714543
            ],
            [
              -0.04940255559818358,
              -0.17150912242731314,
              0.02022123690984681
            ],
            [
              0.1513749668179548,
              -0.027273756266243097,
              -0.14106300396953467
            ]
          ],
          [
            [
              -0.06253962414852622,
              0.00944280660042737,
              0.19473347472129185
            ],
            [
              0.03228226137878352,
              0.17879578168250124,
              0.01837365555643261
            ],
            [
              0.038984765529922694,
              -0.05250165232574803,
              -0.1193063239198719
            ]
          ],
          [
            [
              -0.08860900412155008,
              -0.12117305753302232,
              -0.1802851372088559
            ],
            [
              -0.04765282815474396,
              -0.0925419128836138,
              0.12336226430636685
            ],
            [
              0.18077397607495696,
              0.2967385438886319,
              0.12637052211125932
            ]
          ]
        ]
      ],
      "biases": [
        0.02545989451845792,
        -0.07035630723016532,
        0.09213091541921195,
        -0.12705883996750603,
        0.33732673331054963,
        0.008694399419256817
      ]
    }
  ],
  "dense": {
    "weights": [
      [
        0.053473724826554374,
        0.07873532627233092,
        -0.052332190016086605,
        -0.26785805950287744,
        0.09727123694336916,
        0.0334585087502892,
        0.11093977275796883,
        -0.0013078914335091381,
        0.09579547364945623,
        0.19658826443457458,
        0.01768396518735303,
        -0.09539516650794382,
        -0.0006218891984077082,
        0.08976674448491372,
        -0.17304270057049756,
        0.16545469154513906,
        0.007390794810113861,
        -0.01111436797601371,
        0.007367089810805116,
        -0.0988218277649547,
        -0.006512026024057772,
        -0.2540050295541881,
        0.08686026425191341,
        -0.1355062162705964,
        -0.02654288360133855,
        -0.0016147878671054212,
        -0.12075365568739184,
        -0.02225302984626957,
        -0.07603464085307353,
        0.09511462997767184,
        0.08737204328473396,
        -0.05363967834717431,
        -0.1940366400847421,
        -0.08354406858079176,
        0.08662302773542428,
        -0.014298376174410536,
        -0.05119038275483699,
        0.04695439248578377,
        -0.13413743784522672,
        -0.03353902909591923,
        -0.011374472022117867,
        -0.010260900415268696,
        -0.08116421666652017,
        -0.001570917581021302,
        0.08147709275495017,
        -0.04726127759828603,
        0.1599779349594718,
        -0.0225779595824082,
        0.12546716383014972,
        0.17925613201189342,
        -0.04630173260610997,
        0.25719998297243696,
        -0.20116601242190935,
        -0.11877820180768119,
        0.0680246597348947,
        -0.04322835089532927,
        -0.18382275487620006,
        -0.25266913048356077,
        -0.00005230844729145952,
        -0.0622553949180805,
        -0.00819512150469385,
        0.015754861747734883,
        -0.010796603853854636,
        -0.0038709872021803326,
        0.004971121538232976,
        -0.2516558008503418,
        0.15384287003757902,
        -0.05737568868965325,
        0.10319212086560342,
        -0.18654589783842995,
        -0.14670552036001222,
        -0.36728758798755506,
        0.2342489216658679,
        0.14311095983354633,
        -0.23482774262210893,
        0.035080486367905166,
        -0.05309688976429775,
        0.0025240888877306094,
        -0.15579614282595813,
        0.19812186947444138,
        0.1549942873775172,
        -0.042710705054311925,
        -0.18082872519536758,
        0.019353197644311385,
        -0.019409424276624426,
        -0.3018713602858108,
        -0.18128270078536726,
        -0.12131100781972302,
        -0.231580670297088,
        -0.09191911610426154,
        -0.02728139094363686,
        0.19242083395882711,
        0.0692338738311504,
        0.19697298524282403,
        -0.022578907389166566,
        0.0035576415900566163,
        0.15773428782081922,
        0.130252740869991,
        0.11053213283272954,
        0.04837343551561759,
        0.2447684090592044,
        -0.11835701673352686,
        -0.015544233132590768,
        0.03995475797245143,
        -0.06121197848768967,
        0.08393115792099753,
        0.048057469272696475,
        -0.0023808762947302607,
        0.06774733777789953,
        -0.08562997662850987,
        0.07417456535806821,
        -0.1236263580123321,
        -0.03277495710651217,
        -0.17391861378551154,
        -0.04047295477717493,
        0.015471584626039423,
        0.08618532944447449,
        0.04744305490032299,
        -0.05041382069375424,
        0.007961428914844514,
        -0.12811059084922766,
        0.26923337564421956,
        -0.09029784294340977,
        -0.1934607332968192,
        0.04296596715238066,
        -0.0074442956045122416,
        0.11611972419898323,
        -0.03131792406690186,
        0.05360508267806104,
        -0.0032024985449263144,
        0.006990695051244467,
        -0.06369789992576327,
        0.013328878933033006,
        0.10754316386271773,
        -0.10465859716204358,
        -0.05996704683852567,
        0.05458851373795015,
        -0.056437469696612105,
        -0.04276790675815584,
        0.06531460799266527,
        0.003292365652802585,
        0.019457088526505215,
        0.06877693280208828,
        0.02290465518809199,
        -0.06844955751441817,
        0.10165655952152926,
        0.012997166216520107,
        0.13964959917773367,
        -0.09162804284402777,
        0.0708697265634779,
        -0.20417914636443046,
        0.022095263240671972,
        0.04328835667314993,
        -0.013834910044052197,
        -0.06333828388060858,
        -0.14771994244632883,
        0.14669912269813776,
        -0.027687269843729174,
        0.07399621705312481,
        -0.0537130120725068,
        0.05408084422265436,
        -0.14820253945692863,
        0.08349486042950457,
        0.08532126645886656,
        -0.005582660653059503,
        -0.07494974024785847,
        -0.006068083159047044,
        -0.0966406895556224,
        -0.1620726476977986,
        0.016097302303025123,
        -0.1618468019223593,
        0.0785937552057921,
        -0.10316776785424808,
        -0.0916408714942035,
        0.003945680023505661,
        -0.07727621605664736,
        -0.09420900983247132,
        0.12523521792997955,
        -0.05502441385120039,
        -0.19821638470469402,
        -0.04147097499709785,
        0.005061512303248183,
        -0.09658932524950821,
        -0.10359353848986398,
        0.04099419055003062,
        -0.19474114864161515,
        0.03931465652327213,
        -0.03194009990891348,
        0.000050886759738460904,
        -0.021276650869575826,
        0.08518201022792667,
        -0.05097192712517868,
        -0.028281847637539763,
        0.0607129978485761,
        -0.04129840442257887,
        0.07458303820567229,
        0.06924138839570305,
        0.09921316076068848,
        -0.03314949463506617,
        -0.05217830274236739,
        0.0611090466421951,
        0.1244975526478632,
        0.0819594301699713,
        0.11641628689274933,
        0.025656254678706105,
        -0.122101370151376,
        -0.11882236849456843,
        -0.0052924255813449825,
        -0.03318013683613907,
        -0.06307386758396455,
        -0.11173282345303868,
        -0.0851761875790467,
        0.1920909738318559,
        -0.008711518487757182,
        0.20571598554407752,
        -0.02427071361156622,
        -0.03376850524310234,
        -0.23906493400609935,
        0.2202221590682299,
        0.07734669465792916,
        0.05759552460358688,
        0.09854491897758261,
        -0.053186428382544636,
        0.026001757817145407,
        -0.1274109709711803,
        -0.09522160533858867,
        0.22560467654002284,
        0.08250853810991905,
        -0.14151258883911397,
        -0.05541578328564715,
        0.06601158688428105,
        0.005128801139317518,
        -0.04686716859167864,
        0.12733962890268136,
        -0.0022604994350565507,
        -0.04021352209329541,
        0.17590620841365584,
        0.08785785480697392,
        -0.049540102849251005,
        -0.10677549084635234,
        0.023101823693537596,
        -0.07205213855287347,
        0.08715621090741128,
        0.12810952589299043,
        0.18538714477182863,
        -0.060356560032515334,
        -0.031168784399066115,
        -0.07403203357061341,
        -0.0462865683891206,
        0.043711691725623864,
        0.05348059178738665,
        -0.06871613718781423,
        -0.052224812075171774,
        -0.06786144822612647,
        -0.1553027565800021,
        0.03988279312576512,
        -0.031645314300860615,
        -0.01880613364329698,
        -0.013978181401804289,
        -0.10641289131721611,
        0.13325035582689232,
        0.028900898187427245,
        0.14811682392258702,
        0.06782495795817205,
        -0.05352334096405037,
        -0.024731071055960268,
        -0.07170053602864573,
        -0.074463515028844,
        -0.10658609104257241,
        0.10842414155491552,
        0.014271106143780694,
        0.0018036556947433012,
        -0.05916487853656025,
        0.044677437720866735,
        -0.09437988437251539,
        -0.0034142498720419394,
        -0.027257729040950432,
        0.0014909332948145938,
        -0.021066405455432872,
        0.04565011616311756,
        -0.008661242634555658,
        -0.07213481234535933,
        -0.02000807761243835,
        0.09829678844625366,
        0.10838493535832952,
        -0.05268457442751941,
        -0.02024359419067312,
        0.021119378052117287,
        -0.06203064138702607,
        -0.038755025918715255,
        -0.010490247543649264,
        0.07079770384469154,
        0.012966739047572569,
        0.06280081213812053
      ],
      [
        0.004211468915189965,
        -0.023386562074209413,
        0.10591165834059557,
        0.16880968272535848,
        -0.05957190137348779,
        -0.059590606309301054,
        -0.009215474421387003,
        -0.03217813865448477,
        -0.08095397605343135,
        -0.07186151977983621,
        0.03574996016653872,
        0.15021334409809742,
        0.034325051394592854,
        -0.007834874784471963,
        0.12896816180696455,
        -0.048953426745737647,
        -0.06308678515597244,
        -0.08076224621127755,
        0.06502366186402626,
        0.09916290466240846,
        0.04969671148933698,
        0.14136268563837182,
        -0.07493367565800656,
        -0.01854364890576337,
        -0.08068350322782258,
        -0.0743505420597186,
        -0.03250533638211477,
        0.010833631819704998,
        0.22879993946434582,
        -0.10637608957671635,
        -0.06671586529370148,
        0.16511220090152734,
        0.1509893146290659,
        0.035897861951304864,
        -0.07720382544660026,
        -0.04146804631665471,
        0.002169172637622718,
        0.0011548800546157853,
        0.06871634708016137,
        0.020446105822301493,
        -0.04001149806646789,
        -0.060918698997334673,
        0.08924270570642281,
        -0.12419384941069046,
        -0.09840273097778639,
        -0.04879542607514613,
        -0.12266288312569273,
        -0.0032522778745380483,
        -0.04624246131241991,
        -0.18751899938555466,
        0.10186409791121277,
        -0.30062678411035515,
        0.4037588706788366,
        -0.03098496063700437,
        -0.08226945970642177,
        -0.03299716704871761,
        0.26127678660098735,
        0.20589601286524292,
        0.005802009553548736,
        0.2113915392229405,
        0.054067426827441374,
        0.01505220983122611,
        -0.022235855795127605,
        0.0465014984050542,
        0.038515505900749765,
        0.3237184567910191,
        0.03324155905582536,
        0.03822678540742026,
        -0.16324755891452486,
        0.12945607709205378,
        0.034035971973990935,
        0.15030177120750207,
        -0.07952479161417671,
        0.05977146477693553,
        0.06326896003237582,
        -0.07297839837375544,
        -0.006423785297295536,
        0.01028702100249152,
        0.0581516343610104,
        -0.14267930460018707,
        -0.10609047850898642,
        -0.11255720490523506,
        0.08116542532282521,
        -0.0017082381956599342,
        0.07629280844232819,
        0.40358044285808237,
        0.21276321201642226,
        0.12426613025380275,
        0.13964288933504934,
        0.05191505084821202,
        -0.03237174029721369,
        -0.10423283842639361,
        -0.048920665345287405,
        -0.015231906271280904,
        -0.1371604973939607,
        -0.019831141110786817,
        -0.04270612383491458,
        -0.10033523142364785,
        -0.11672141339357406,
        0.014163226742243554,
        -0.3258962674023387,
        0.15450751098391036,
        -0.025619645725328325,
        -0.0025757873707860225,
        -0.08749835585832547,
        -0.0658051019000492,
        -0.02345357407610117,
        0.004051080128328319,
        -0.0492929038141549,
        -0.03421818137659821,
        -0.059236776049575814,
        0.015270561532452352,
        -0.11222982680600156,
        0.08369954455265526,
        0.09136364087111243,
        -0.1286785404152232,
        -0.1978208417283998,
        -0.12189953356059173,
        0.061629069887264305,
        -0.03530065122224924,
        0.20775329408770699,
        -0.040382227314168864,
        -0.02172096863573402,
        0.07780384392380728,
        0.007398770545933697,
        0.030947839358660603,
        -0.06841654258029561,
        0.10434119022175317,
        0.03614395437682517,
        0.0852770205652981,
        0.03718130357605548,
        0.1262545585136929,
        0.0005085870826756969,
        0.0021831696003724106,
        0.09189113280310864,
        -0.1322768399050254,
        -0.17868156022137924,
        -0.014658837496824393,
        0.03674788323355117,
        -0.022936625181587313,
        -0.011180459809695948,
        0.1131350380632304,
        0.03592864655481799,
        -0.04311895838981102,
        -0.010759956190177201,
        -0.12685454357739404,
        -0.12432658796272465,
        0.014368015959420728,
        -0.042458809518645065,
        -0.000031203040491130644,
        0.2102478781716421,
        0.005478424194774792,
        -0.0982199761002278,
        0.011951772149249152,
        -0.034934355434834356,
        0.007078719974115443,
        -0.1289660285300396,
        -0.05215784813714154,
        -0.058653169798651636,
        -0.021932888788079648,
        -0.0728080745098269,
        0.15096628842415244,
        0.09486231504368792,
        -0.15381739723278912,
        -0.11518903096767202,
        0.02262191719112313,
        0.12638791855869255,
        0.04310447136426379,
        0.22543539719028804,
        0.02762777494373378,
        0.09379782920585193,
        -0.07662587501513018,
        0.20440974758027677,
        0.004081475012882253,
        0.0005459289969625669,
        0.11166735631979344,
        0.038699243514738135,
        -0.05707895823238865,
        0.11070711948750446,
        0.1775926693916619,
        0.13905249184713286,
        0.04830915926335346,
        0.0003067830160285856,
        0.008018641623330046,
        -0.11691883500885086,
        0.16062675187339728,
        0.01742079922882378,
        0.04184796626657831,
        0.06252642851801149,
        0.04946469483580944,
        -0.07729495227284867,
        -0.01631415394432447,
        -0.027150536419518815,
        0.022411424587255868,
        -0.08718538032905658,
        0.06723046383755767,
        -0.1142836038255196,
        -0.028237703296065383,
        0.04594175261741306,
        -0.021276061299227364,
        -0.10751664760032849,
        -0.11333754864069429,
        -0.12215864525328621,
        -0.09858858757723522,
        -0.17190851007168742,
        0.25781070276004553,
        0.013406556406666062,
        0.026051140036144425,
        0.0046684214180256695,
        -0.025716417647732078,
        0.03602954130948146,
        0.19925639727784566,
        -0.23028545129883646,
        -0.06488250123767968,
        -0.29558957026381677,
        0.04166142378155235,
        0.02349792374167266,
        0.026626287840743175,
        0.02248663636296909,
        -0.16458234053179222,
        -0.2012873057807133,
        -0.0777173605400717,
        -0.0809509368425666,
        -0.09521380759705085,
        0.0635434727062698,
        0.06560271834412447,
        -0.0880874068990294,
        -0.0848586373761836,
        0.12726796540047905,
        0.08400025474712954,
        -0.10956300590468615,
        0.045554331635559824,
        -0.12378337023864655,
        -0.1376938520685317,
        0.038709529827384515,
        -0.024905287976727614,
        -0.12456518026210664,
        -0.14309424097101878,
        0.07134380208266794,
        -0.055778334801387934,
        -0.20112324608408047,
        0.049891802156608336,
        -0.09378301290196839,
        -0.15673822704868418,
        -0.03305694599178792,
        0.019119673149732095,
        0.05429230760242483,
        0.09702695587172834,
        0.03128976885106248,
        -0.024696696185784416,
        -0.0818425587302105,
        -0.050761227260637934,
        -0.06758396167659535,
        -0.039266342910687674,
        0.19531727304629753,
        0.03104753695115898,
        0.1140262190834582,
        0.0015152286411453531,
        0.05506526829620093,
        0.057523371151334365,
        -0.0704651920336734,
        0.077115722286149,
        -0.022012163185953372,
        -0.09851483989899334,
        -0.05362655342196185,
        -0.00421974221906627,
        0.06633893530837776,
        0.0077789896742054285,
        0.0030943040278074273,
        -0.05436829930693501,
        0.06090098965862035,
        -0.05618058821421625,
        0.004358418137635282,
        -0.0036530166660025385,
        0.12058124832416804,
        0.07781434748510832,
        -0.011616690775414785,
        0.014256039773959242,
        0.0489575982296275,
        -0.07411216009899416,
        0.011150941913119217,
        0.008656251717944378,
        -0.014434207649203076,
        -0.04575010802264505,
        -0.012950821364489797,
        0.06267314543851808,
        -0.056061989811030104,
        0.020838031165054446,
        -0.03753834019927274,
        0.08387750441235726,
        -0.07832318212074299,
        -0.01924156122778491,
        0.0735413438115974,
        -0.04230926557205654
      ],
      [
        -0.019538861258510183,
        0.08756074447716905,
        -0.045595494647596636,
        0.12620286360874688,
        -0.031600333063400286,
        -0.042030883162733124,
        -0.07497230300426248,
        -0.026307708121389942,
        0.02313671719731547,
        -0.05047027987323895,
        0.02048622035875929,
        -0.09254943487366059,
        -0.04571275409610436,
        -0.05534531020574865,
        0.09075018946407504,
        -0.08321990155042767,
        -0.0793479458165593,
        0.10509330711333623,
        0.040610902006939814,
        0.07466373439595712,
        0.08024672529386741,
        0.18636627941412087,
        -0.031169739475134454,
        0.1333011804571861,
        0.11784881590560163,
        -0.10788261970960863,
        -0.006733311986932026,
        -0.0021420939093868244,
        -0.07252464349786952,
        -0.022121904676867463,
        -0.1891174256162549,
        0.02075913118865328,
        -0.02484869080877908,
        -0.11629580652185882,
        -0.04251802064489748,
        0.09388165655691423,
        0.05944730596138126,
        -0.08832109180965987,
        -0.024817032588190204,
        0.12863128961569809,
        -0.026879953706529885,
        0.060381687663198916,
        -0.04151550522472824,
        0.05917295426252776,
        0.06031824001695763,
        -0.04982362780257134,
        -0.06285490378760614,
        0.04055833478391667,
        -0.12332850808969636,
        -0.02558380031446901,
        -0.06417619991109014,
        -0.031169544701703418,
        -0.14507798982056422,
        -0.028923146226220907,
        0.0678034345235438,
        0.06946045608968808,
        -0.10052075469489342,
        -0.025853704905188814,
        0.01277724677592789,
        -0.05166769657748315,
        0.01411777291696658,
        0.03254081616948674,
        0.00877545815267746,
        -0.06245450945239241,
        0.080021265827794,
        -0.0382663688370774,
        -0.006298732000394047,
        0.06504947194591894,
        -0.08463201116865124,
        0.02383683012480451,
        0.20062851456596387,
        0.1421832566378415,
        -0.23505415686358405,
        -0.07082377739657802,
        0.14527563181495162,
        -0.0076956796498882955,
        0.04137769489767635,
        0.03800678736423866,
        0.12199914732761184,
        0.07004667898170913,
        -0.1621701057211365,
        -0.08540179250277094,
        0.06768991204289032,
        -0.09142764144188407,
        -0.09928612118937534,
        -0.1551077249547693,
        0.1139872876717679,
        -0.027558490756339704,
        0.06135589549678632,
        -0.007628280963775055,
        -0.016505558138627873,
        -0.03998415487865715,
        -0.08193599333210543,
        -0.022210812851929117,
        0.19885214344367447,
        0.10361811321115909,
        -0.06014576566409152,
        0.06762190115131776,
        0.07628166604446172,
        -0.030249594959592802,
        0.09635973267175398,
        -0.008388703130986302,
        0.06259040284209515,
        -0.006292562115334338,
        0.09405076346964131,
        0.03104759490783871,
        -0.08413131971852095,
        0.08204911140351091,
        -0.06342369873041415,
        0.0789356627269927,
        0.01459143079199004,
        0.047492493476382715,
        0.08395982106923089,
        0.018413121564764167,
        -0.006296372595758488,
        0.14021112830926638,
        0.15590814262041539,
        -0.06202590843142729,
        0.018513324934133834,
        -0.09768819419783976,
        -0.04011731236664652,
        -0.1534476614747192,
        0.05303757835885195,
        0.10425719335685477,
        -0.1485199352905089,
        0.026410112203071347,
        -0.0859206646292761,
        0.02516617293781049,
        0.014619529964909679,
        -0.07736004595910072,
        0.09105841181956574,
        -0.06546315603262513,
        0.03066811595345068,
        0.02309841194552129,
        0.0567730479317314,
        0.10945443771064622,
        0.06474503602318546,
        0.05648164330312548,
        0.055587828847231534,
        0.10803120069803211,
        -0.05539558741275878,
        -0.05913429480729703,
        0.014855913624660828,
        0.09848147357593846,
        0.08921513004819585,
        -0.0001710356329523527,
        0.0943865506350577,
        -0.12361005160562415,
        0.08198430685294981,
        -0.015200915840562386,
        0.01735979429989148,
        -0.07965737571412534,
        -0.007927242640200616,
        0.026422011255316586,
        0.0662606486675771,
        -0.02013895641013528,
        -0.05874202017684521,
        0.1013872631082814,
        -0.03504866534863338,
        -0.04295295102966599,
        -0.045120769043350606,
        0.016082531293544727,
        -0.03632335914076603,
        0.02667697370658503,
        0.01773264743791028,
        -0.09071459122226957,
        -0.07668264162711917,
        0.08765757381167838,
        -0.02254230761150337,
        0.015511490839070856,
        0.06464986459551679,
        0.08209121432576634,
        -0.04845570288035253,
        -0.016303159396065837,
        0.056116074904982084,
        0.035667199826634764,
        -0.0012859608231470072,
        -0.051616677032588744,
        0.07478285108369088,
        -0.05730603213400341,
        -0.0693330912752439,
        0.043323655568740516,
        -0.07091944149980235,
        0.02768746301326516,
        0.01129971352093318,
        0.09547991441112434,
        0.01863186502320535,
        -0.05884824556904711,
        0.042949665821332104,
        0.0007798814342849356,
        -0.040118050932098845,
        0.09206687189190901,
        0.04051019574246551,
        -0.053396003511260566,
        0.07503141180249177,
        -0.02540402943435878,
        -0.029026739957601515,
        -0.06119174022855249,
        -0.05555817995349799,
        0.05784146693557507,
        -0.03905046260775319,
        0.08685761702556144,
        0.019973432332706313,
        -0.10305476390388177,
        0.06760643119102677,
        -0.21920856312785078,
        0.02064733571102673,
        -0.02491767205125633,
        0.051126625841323166,
        0.05183466454510287,
        0.010041038462877211,
        -0.07848857315345746,
        -0.0718980605583846,
        0.2087875888187156,
        0.12769876421283366,
        0.019729936665744935,
        0.016045061716898075,
        0.03874673952442875,
        -0.2311158818047747,
        0.03808728455809362,
        0.1380535337720664,
        0.0033381735504868816,
        0.06291471568208291,
        0.0899224295662999,
        0.035903143936661414,
        -0.08704338672543874,
        -0.14761776426201803,
        0.03320319186703222,
        -0.0912440314501399,
        -0.03237175091895359,
        -0.020810726805120874,
        -0.04347528949490646,
        0.08934406353782336,
        -0.021965159325001378,
        0.0036162830517986366,
        0.0032514289821877975,
        -0.0789086314974402,
        0.01675228612675448,
        0.020600547803626617,
        -0.006175779690571507,
        0.1613246081044299,
        0.031527904608619386,
        -0.07122701281923424,
        0.09141313046363106,
        0.04446092899498492,
        -0.05409248771479861,
        -0.07531145605946826,
        -0.06856383678338271,
        -0.0017217307344509656,
        -0.030818554380254704,
        0.05606699640758993,
        0.015240420273782728,
        0.04515498737369057,
        0.06366063467923014,
        -0.04067386163934363,
        0.009751977408700272,
        -0.023720684981058848,
        0.058954059129778184,
        -0.06244509208222477,
        -0.012654000922896825,
        -0.09748204309748804,
        0.019824807923159826,
        -0.11240006584422285,
        0.01936196064413826,
        0.050782515437827205,
        0.09666200103749145,
        0.06658846310202053,
        -0.04290349018734228,
        0.0668089459269981,
        -0.03352515136444362,
        0.03258917898793131,
        -0.004425612878907822,
        0.05588628737696048,
        -0.06402427477497732,
        0.02554403735540879,
        -0.03098211752394329,
        -0.0932476834857592,
        0.027601067007835545,
        0.04784175080057696,
        0.04062822790194766,
        0.05861489833895543,
        -0.0016569474420413369,
        0.08700412525094002,
        0.05589239837401013,
        -0.07494742723360041,
        -0.072142269085073,
        0.028364371951374385,
        -0.061358601264271596,
        -0.04284301420782364,
        0.05296831543047172,
        -0.03669073216044355,
        0.042650460838369146,
        -0.045923560557576036,
        -0.05710981852797929
      ]
    ],
    "biases": [
      0.20050327362264805,
      -0.11146671959168197,
      -0.08903655403096641
    ]
  }
}